66.370658874512 -7.5060787200928 269.72143554688
75.908103942871 3.2045435905457 269.0439453125
85.114028930664 3.9263033866882 275.18151855469
84.644668579102 2.422753572464 264.49102783203
66.027816772461 -7.0357427597046 269.64529418945
65.961601257324 -6.4545822143555 269.5729675293
66.045059204102 -5.8743829727173 269.50988769531
66.249588012695 -5.3235726356506 269.45758056641
66.531303405762 -4.8069586753845 269.41403198242
66.863296508789 -4.3205327987671 269.37710571289
67.232925415039 -3.8615779876709 269.34576416016
67.630142211914 -3.4259369373322 269.31872558594
68.038848876953 -3.0010669231415 269.29370117188
68.480560302734 -2.6101262569427 269.2746887207
68.921279907227 -2.2180795669556 269.25543212891
69.363708496094 -1.8279509544373 269.23654174805
69.818283081055 -1.4519259929657 269.22006225586
70.271949768066 -1.074818611145 269.2033996582
70.72029876709 -0.69145065546036 269.18566894531
71.176254272461 -0.31709259748459 269.16943359375
71.639045715332 0.048853259533644 269.15466308594
72.10147857666 0.415233284235 269.13973999023
72.573509216309 0.7692477107048 269.126953125
73.037338256836 1.1338698863983 269.11236572266
73.512519836426 1.4836605787277 269.10018920898
74.002082824707 1.8131387233734 269.09133911133
74.480606079102 2.1583728790283 269.07989501953
74.962265014648 2.4992504119873 269.06918334961
75.442039489746 2.8427557945251 269.05804443359
66.584487915039 -6.6585068702698 269.90640258789
66.91805267334 -5.9069304466248 269.89379882812
67.733497619629 -5.6512627601624 270.13436889648
68.440986633301 -5.1707992553711 270.39733886719
69.181167602539 -4.7202472686768 270.62130737305
69.919845581055 -4.2843332290649 270.87649536133
70.625183105469 -3.8121290206909 271.16024780273
71.311416625977 -3.3345701694489 271.48001098633
71.99919128418 -2.8644318580627 271.8073425293
72.699211120605 -2.4063067436218 272.12561035156
73.412727355957 -1.9585689306259 272.42831420898
74.138374328613 -1.5248149633408 272.72229003906
74.864952087402 -1.0732131004333 272.98559570312
75.601608276367 -0.62320709228516 273.22171020508
76.370384216309 -0.2087984085083 273.41760253906
77.154510498047 0.18945676088333 273.58428955078
77.942428588867 0.58212661743164 273.74557495117
78.719390869141 0.96989768743515 273.96279907227
79.506660461426 1.3482944965363 274.15823364258
80.306854248047 1.714802980423 274.3210144043
81.088172912598 2.1250667572021 274.4709777832
81.869873046875 2.5309081077576 274.63061523438
82.654289245605 2.9263677597046 274.80139160156
83.490020751953 3.2378647327423 274.87692260742
84.306976318359 3.575957775116 275.01666259766
66.560218811035 -6.7928729057312 269.29879760742
66.726005554199 -6.0070714950562 269.10037231445
67.540023803711 -5.7761068344116 269.02838134766
68.270957946777 -5.4340739250183 268.75659179688
68.980255126953 -5.0360383987427 268.50402832031
69.706001281738 -4.6499338150024 268.28131103516
70.423187255859 -4.2627868652344 268.03433227539
71.130813598633 -3.8911914825439 267.74014282227
71.846252441406 -3.5107641220093 267.47775268555
72.562568664551 -3.1369335651398 267.20858764648
73.265045166016 -2.7688190937042 266.89807128906
73.962989807129 -2.3829214572906 266.5993347168
74.68798828125 -2.0154905319214 266.34490966797
75.428848266602 -1.6565006971359 266.12677001953
76.184730529785 -1.3046628236771 265.95278930664
76.94359588623 -0.9498450756073 265.79898071289
77.706535339355 -0.60183709859848 265.65002441406
78.482368469238 -0.2872921526432 265.49322509766
79.258102416992 0.027678161859512 265.3369140625
80.030014038086 0.36112824082375 265.20129394531
80.800178527832 0.69701027870178 265.06182861328
81.570732116699 1.0369912385941 264.93502807617
82.343208312988 1.3806068897247 264.83200073242
83.134323120117 1.6906518936157 264.77359008789
83.891944885254 2.0645196437836 264.66567993164
