66.307792663574 -7.5168714523315 269.73721313477
75.672676086426 3.0104930400848 269.05163574219
83.860328674316 3.3899309635162 274.90255737305
84.570373535156 2.3029541969299 264.57562255859
66.026634216309 -7.0192184448242 269.6614074707
65.961647033691 -6.4503946304321 269.59017944336
66.04362487793 -5.8827347755432 269.52786254883
66.241424560547 -5.3430271148682 269.47583007812
66.515396118164 -4.8368020057678 269.43231201172
66.839424133301 -4.360472202301 269.39526367188
67.195335388184 -3.9071116447449 269.36288452148
67.580192565918 -3.4777178764343 269.33511352539
67.982200622559 -3.064177274704 269.31021118164
68.405235290527 -2.6719031333923 269.28912353516
68.838790893555 -2.2911949157715 269.26998901367
69.269920349121 -1.9077537059784 269.25045776367
69.70622253418 -1.5301641225815 269.23184204102
70.148597717285 -1.1596542596817 269.21447753906
70.600303649902 -0.80047982931137 269.19900512695
71.041732788086 -0.42884823679924 269.18142700195
71.490203857422 -0.065678350627422 269.1653137207
71.947631835938 0.28622505068779 269.15106201172
72.396369934082 0.64905697107315 269.13494873047
72.856712341309 0.99717104434967 269.12133789062
73.320220947266 1.3410749435425 269.10836791992
73.788558959961 1.6784209012985 269.09649658203
74.267456054688 2.0006699562073 269.08697509766
74.731590270996 2.3437311649323 269.07421875
75.216217041016 2.6573362350464 269.06610107422
66.560844421387 -6.7324652671814 269.91888427734
66.656478881836 -5.9339065551758 269.90560913086
67.448356628418 -5.7081322669983 270.08770751953
68.14527130127 -5.2944822311401 270.33557128906
68.808982849121 -4.8196406364441 270.56600952148
69.465286254883 -4.3459210395813 270.81890869141
70.124504089355 -3.8851020336151 271.08767700195
70.78441619873 -3.4287331104279 271.36187744141
71.448188781738 -2.9981229305267 271.66708374023
72.111961364746 -2.56751537323 271.97229003906
72.778617858887 -2.1397016048431 272.27478027344
73.470771789551 -1.7365924119949 272.55334472656
74.164749145508 -1.3336715698242 272.82736206055
74.865653991699 -0.91891372203827 273.06356811523
75.57120513916 -0.49661439657211 273.27099609375
76.284515380859 -0.086248710751534 273.47543334961
77.021690368652 0.28506195545197 273.67004394531
77.759429931641 0.65515661239624 273.86471557617
78.507400512695 1.0032074451447 274.06112670898
79.255043029785 1.3519780635834 274.25741577148
79.99146270752 1.7268124818802 274.44772338867
80.743324279785 2.0987989902496 274.57192993164
81.511512756348 2.4482896327972 274.65487670898
82.294311523438 2.761322259903 274.74642944336
83.075233459473 3.0886428356171 274.79290771484
66.621017456055 -6.8328905105591 269.34674072266
66.618591308594 -6.0549974441528 269.07308959961
67.402572631836 -5.7624535560608 268.92428588867
68.142463684082 -5.4212198257446 268.68084716797
68.856925964355 -5.0195388793945 268.45343017578
69.570053100586 -4.619086265564 268.22027587891
70.269401550293 -4.2310457229614 267.9306640625
70.969955444336 -3.8445498943329 267.64202880859
71.689071655273 -3.48202252388 267.36822509766
72.41332244873 -3.1260094642639 267.09945678711
73.141304016113 -2.7662281990051 266.84622192383
73.869697570801 -2.405791759491 266.59512329102
74.598907470703 -2.0393285751343 266.35534667969
75.32844543457 -1.6715589761734 266.11862182617
76.063301086426 -1.301725268364 265.90243530273
76.801452636719 -0.93116635084152 265.69912719727
77.553161621094 -0.57703864574432 265.51751708984
78.328216552734 -0.25557845830917 265.37805175781
79.119560241699 0.038283556699753 265.27340698242
79.910285949707 0.33411329984665 265.16973876953
80.681022644043 0.66643637418747 265.03170776367
81.442802429199 1.0119272470474 264.8772277832
82.20686340332 1.373680472374 264.78302001953
82.979225158691 1.7245379686356 264.72067260742
83.761161804199 2.0520377159119 264.65100097656
